digraph Tree {
node [shape=box, style="filled, rounded", color="black", fontname=helvetica] ;
edge [fontname=helvetica] ;
0 [label="st_depression <= 1.7\ngini = 0.49\nsamples = 100.0%\nvalue = [0.42, 0.58]\nclass = disease", fillcolor="#c7e3f8"] ;
1 [label="sex_male <= 0.5\n0.42\n77.8%\n[0.3, 0.7]\ndisease", fillcolor="#90c8f0"] ;
0 -> 1 [labeldistance=2.5, labelangle=45, headlabel="True"] ;
2 [label="st_slope_upsloping <= 0.5\n0.22\n28.5%\n[0.13, 0.87]\ndisease", fillcolor="#56abe9"] ;
1 -> 2 ;
3 [label="num_major_vessels <= 1.5\n0.04\n16.5%\n[0.02, 0.98]\ndisease", fillcolor="#3d9fe6"] ;
2 -> 3 ;
4 [label="0.0\n15.2%\n[0.0, 1.0]\ndisease", fillcolor="#399de5"] ;
3 -> 4 ;
5 [label="chest_pain_type_typical angina <= 0.5\n0.28\n1.3%\n[0.17, 0.83]\ndisease", fillcolor="#61b1ea"] ;
3 -> 5 ;
6 [label="0.0\n0.6%\n[0.0, 1.0]\ndisease", fillcolor="#399de5"] ;
5 -> 6 ;
7 [label="0.0\n0.6%\n[1.0, 0.0]\nno disease", fillcolor="#e58139"] ;
5 -> 7 ;
8 [label="exercise_induced_angina_yes <= 0.5\n0.42\n12.0%\n[0.3, 0.7]\ndisease", fillcolor="#8ec7f0"] ;
2 -> 8 ;
9 [label="thalassemia_reversable defect <= 0.5\n0.09\n8.9%\n[0.05, 0.95]\ndisease", fillcolor="#43a2e6"] ;
8 -> 9 ;
10 [label="0.0\n7.6%\n[0.0, 1.0]\ndisease", fillcolor="#399de5"] ;
9 -> 10 ;
11 [label="0.38\n1.3%\n[0.25, 0.75]\ndisease", fillcolor="#7bbeee"] ;
9 -> 11 ;
12 [label="rest_ecg_normal <= 0.5\n0.32\n3.2%\n[0.8, 0.2]\nno disease", fillcolor="#eca06a"] ;
8 -> 12 ;
13 [label="0.0\n2.5%\n[1.0, 0.0]\nno disease", fillcolor="#e58139"] ;
12 -> 13 ;
14 [label="0.0\n0.6%\n[0.0, 1.0]\ndisease", fillcolor="#399de5"] ;
12 -> 14 ;
15 [label="st_depression <= 0.7\n0.49\n49.4%\n[0.43, 0.57]\ndisease", fillcolor="#cfe7f9"] ;
1 -> 15 ;
16 [label="max_heart_rate_achieved <= 163.5\n0.42\n31.0%\n[0.3, 0.7]\ndisease", fillcolor="#8dc6f0"] ;
15 -> 16 ;
17 [label="exercise_induced_angina_yes <= 0.5\n0.49\n19.0%\n[0.44, 0.56]\ndisease", fillcolor="#d2e9f9"] ;
16 -> 17 ;
18 [label="0.44\n12.0%\n[0.32, 0.68]\ndisease", fillcolor="#97cbf1"] ;
17 -> 18 ;
19 [label="0.4\n7.0%\n[0.73, 0.27]\nno disease", fillcolor="#efb083"] ;
17 -> 19 ;
20 [label="cholesterol <= 202.0\n0.15\n12.0%\n[0.08, 0.92]\ndisease", fillcolor="#4aa6e7"] ;
16 -> 20 ;
21 [label="0.32\n3.2%\n[0.2, 0.8]\ndisease", fillcolor="#6ab6ec"] ;
20 -> 21 ;
22 [label="0.09\n8.9%\n[0.05, 0.95]\ndisease", fillcolor="#43a2e6"] ;
20 -> 22 ;
23 [label="age <= 56.5\n0.47\n18.4%\n[0.62, 0.38]\nno disease", fillcolor="#f5ceb1"] ;
15 -> 23 ;
24 [label="age <= 40.5\n0.49\n10.1%\n[0.44, 0.56]\ndisease", fillcolor="#d5eaf9"] ;
23 -> 24 ;
25 [label="0.0\n1.3%\n[1.0, 0.0]\nno disease", fillcolor="#e58139"] ;
24 -> 25 ;
26 [label="0.46\n8.9%\n[0.36, 0.64]\ndisease", fillcolor="#aad5f4"] ;
24 -> 26 ;
27 [label="chest_pain_type_atypical angina <= 0.5\n0.26\n8.2%\n[0.85, 0.15]\nno disease", fillcolor="#ea975c"] ;
23 -> 27 ;
28 [label="0.0\n5.7%\n[1.0, 0.0]\nno disease", fillcolor="#e58139"] ;
27 -> 28 ;
29 [label="0.48\n2.5%\n[0.4, 0.6]\ndisease", fillcolor="#bddef6"] ;
27 -> 29 ;
30 [label="thalassemia_fixed defect <= 0.5\n0.32\n22.2%\n[0.8, 0.2]\nno disease", fillcolor="#eca06a"] ;
0 -> 30 [labeldistance=2.5, labelangle=-45, headlabel="False"] ;
31 [label="resting_blood_pressure <= 155.0\n0.14\n15.8%\n[0.93, 0.07]\nno disease", fillcolor="#e78b49"] ;
30 -> 31 ;
32 [label="max_heart_rate_achieved <= 158.0\n0.06\n12.7%\n[0.97, 0.03]\nno disease", fillcolor="#e6853f"] ;
31 -> 32 ;
33 [label="0.0\n12.0%\n[1.0, 0.0]\nno disease", fillcolor="#e58139"] ;
32 -> 33 ;
34 [label="0.0\n0.6%\n[0.0, 1.0]\ndisease", fillcolor="#399de5"] ;
32 -> 34 ;
35 [label="num_major_vessels <= 1.0\n0.41\n3.2%\n[0.71, 0.29]\nno disease", fillcolor="#efb388"] ;
31 -> 35 ;
36 [label="0.0\n1.3%\n[0.0, 1.0]\ndisease", fillcolor="#399de5"] ;
35 -> 36 ;
37 [label="0.0\n1.9%\n[1.0, 0.0]\nno disease", fillcolor="#e58139"] ;
35 -> 37 ;
38 [label="num_major_vessels <= 2.5\n0.49\n6.3%\n[0.43, 0.57]\ndisease", fillcolor="#cee6f8"] ;
30 -> 38 ;
39 [label="sex_male <= 0.5\n0.4\n5.1%\n[0.27, 0.73]\ndisease", fillcolor="#83c2ef"] ;
38 -> 39 ;
40 [label="0.0\n1.9%\n[0.0, 1.0]\ndisease", fillcolor="#399de5"] ;
39 -> 40 ;
41 [label="age <= 45.5\n0.5\n3.2%\n[0.5, 0.5]\nno disease", fillcolor="#ffffff"] ;
39 -> 41 ;
42 [label="0.0\n0.6%\n[0.0, 1.0]\ndisease", fillcolor="#399de5"] ;
41 -> 42 ;
43 [label="0.48\n2.5%\n[0.6, 0.4]\nno disease", fillcolor="#f6d5bd"] ;
41 -> 43 ;
44 [label="0.0\n1.3%\n[1.0, 0.0]\nno disease", fillcolor="#e58139"] ;
38 -> 44 ;
}